"{"input_nodes":5,"hidden_nodes":5,"output_nodes":1,"weights_ih":{"rows":5,"cols":5,"data":[[-0.9502825053311407,-0.005037265901104284,-0.6426751631399541,0.4540050119380064,-0.3141126193857081],[0.05126068378234838,-0.8999094983170522,-0.5963886310794111,-0.18410554996641382,-0.9176535844350077],[0.940991514858544,0.36728356929397316,-0.943718921686482,-0.1576143880850564,0.378427371536953],[-0.367086674793388,0.13326531702766975,0.5037893308866973,-0.8192850968066642,0.5788704041916162],[0.9585564705717788,-0.6836538643298486,0.08605369253130729,0.509996630514383,-0.9786430428560101]]},"weights_ho":{"rows":1,"cols":5,"data":[[-0.447236731283936,0.27225572297945977,0.947520363924145,-0.23840816786993554,0.11562405337969554]]},"bias_h":{"rows":5,"cols":1,"data":[[-0.9636229910068288],[-0.38496425205920665],[0.11290605130371728],[-0.7883919536962748],[-0.8978488770056124]]},"bias_o":{"rows":1,"cols":1,"data":[[-0.5153084912869931]]},"learning_rate":0.1,"activation_function":{}}"




"{"input_nodes":5,"hidden_nodes":5,"output_nodes":1,"weights_ih":{"rows":5,"cols":5,"data":[[0.09728225842608812,-0.4633162505272046,-0.06486630580474359,0.26019822933298303,0.186810899129943],[0.9981462617453273,0.2318768865613418,-1,-0.1618677594488329,0.23441936294882545],[0.8479731795366033,0.26281679197535596,-1,-0.0799091331798111,0.20724438985051918],[0.385157173214564,0.7943899276078039,-0.6146911963011351,0.5012798522755719,-0.132637358440552],[0.24304762997187213,-0.14551169725394508,-0.787626768191894,-0.2642716391478125,-0.9141001543900951]]},"weights_ho":{"rows":1,"cols":5,"data":[[-0.272132065225288,0.4930583472545463,-0.17629111434423103,0.4315390303896238,0.035564771343342516]]},"bias_h":{"rows":5,"cols":1,"data":[[0.17455486790920557],[0.0609213667284139],[0.345628386795488],[-0.6152170317335146],[-0.979366987197858]]},"bias_o":{"rows":1,"cols":1,"data":[[-0.18465877395581565]]},"learning_rate":0.1,"activation_function":{}}"